{"InputsCount":33,"Layers":[{"InputsCount":33,"Neurons":[{"Threshold":-4.5725359916687012,"ActivationFunction":{"Alpha":2.0},"InputsCount":33,"Output":0.068888924643607075,"Weights":[-1.6283891201019287,-3.7310616970062256,-0.26727807521820068,-2.0877337455749512,-0.586480438709259,0.73374485969543457,-0.11967241764068604,0.16410522162914276,-0.2207704484462738,0.032976437360048294,-0.066367566585540771,-0.051212731748819351,0.53013527393341064,-0.1168283149600029,-0.26349332928657532,8.7890663146972656,-2.1141626834869385,-2.3281593322753906,-4.2890725135803223,3.969416618347168,1.6810661554336548,4.06156063079834,0.40968585014343262,0.16353772580623627,-5.8423261642456055,-3.1049695014953613,1.0914567708969116,2.5120847225189209,-2.6185736656188965,0.56955927610397339,1.9800435304641724,-1.340242862701416,0.39431542158126831]},{"Threshold":1.2096489667892456,"ActivationFunction":{"Alpha":2.0},"InputsCount":33,"Output":0.99644652939388556,"Weights":[2.6412017345428467,0.32780587673187256,4.7459759712219238,1.5982317924499512,0.20001299679279327,0.32903000712394714,-0.1246001273393631,0.068270392715930939,-0.38880819082260132,-0.55022293329238892,0.31184211373329163,-0.65830200910568237,-0.2130463719367981,-0.10459508746862411,0.16242626309394836,-0.18656763434410095,2.3513538837432861,-2.6761794090270996,2.6561288833618164,-0.66357779502868652,0.35866641998291016,1.0948491096496582,-0.53707414865493774,-1.042061448097229,1.1363140344619751,-1.1905715465545654,1.8390249013900757,0.673531174659729,-0.97544312477111816,1.2524688243865967,0.7040984034538269,-0.658484935760498,-0.65284818410873413]},{"Threshold":-0.2803424596786499,"ActivationFunction":{"Alpha":2.0},"InputsCount":33,"Output":-0.71625525282597247,"Weights":[-1.2163394689559937,-0.27074196934700012,-2.1911575794219971,-0.71014010906219482,0.801159679889679,1.691236138343811,0.99304312467575073,-0.47167760133743286,2.2068197727203369,-0.89198553562164307,-0.64230060577392578,-0.40856131911277771,1.5712505578994751,0.12965868413448334,-0.089770674705505371,1.1644482612609863,-1.7587977647781372,1.1098413467407227,-2.1937394142150879,0.67416524887084961,-1.0457284450531006,-1.8256672620773315,2.0728764533996582,-0.85561609268188477,1.5665557384490967,-5.76747465133667,4.0304408073425293,-3.9067869186401367,1.3491590023040771,-0.9767765998840332,1.0185405015945435,0.34896391630172729,-1.0235730409622192]},{"Threshold":-0.83812481164932251,"ActivationFunction":{"Alpha":2.0},"InputsCount":33,"Output":-0.89537825708594443,"Weights":[-4.83767557144165,-3.8889517784118652,-4.9468626976013184,-0.056004900485277176,-0.29836204648017883,0.13077811896800995,-0.65306419134140015,-0.074348300695419312,-0.11581680923700333,-0.0093691227957606316,0.19636838138103485,0.0048181177116930485,-0.067047096788883209,0.19970372319221497,-0.071892507374286652,0.86072099208831787,-1.8881152868270874,-2.5511136054992676,-4.6028108596801758,1.4168856143951416,-0.67396998405456543,-1.9664325714111328,1.0825945138931274,-1.4653643369674683,2.77606201171875,0.72823476791381836,-3.4694976806640625,1.1415936946868896,1.5355696678161621,-0.89593487977981567,0.26265683770179749,0.85490858554840088,-0.76218652725219727]},{"Threshold":-0.018983623012900352,"ActivationFunction":{"Alpha":2.0},"InputsCount":33,"Output":0.0316643740537037,"Weights":[-0.075745902955532074,0.11998885124921799,0.0074130822904407978,-3.7095799446105957,0.27199679613113403,-0.41374492645263672,-0.472439169883728,-0.36339846253395081,0.061106652021408081,0.0027395107317715883,-0.070326760411262512,-0.036466736346483231,0.32694512605667114,0.34420540928840637,0.017221624031662941,0.311603307723999,-0.63608884811401367,-1.6411855220794678,-0.33450505137443542,0.57746857404708862,0.71811443567276,-0.74763572216033936,1.6183605194091797,-0.11792492866516113,-0.72621113061904907,2.4594459533691406,-0.57642906904220581,-1.1565535068511963,1.1128576993942261,-1.146208643913269,-1.0176435708999634,0.8405035138130188,-0.29913574457168579]},{"Threshold":-3.860004186630249,"ActivationFunction":{"Alpha":2.0},"InputsCount":33,"Output":0.66202271330308937,"Weights":[0.56924945116043091,1.5572735071182251,-0.381437212228775,-0.3185935914516449,-0.72030848264694214,0.62446260452270508,1.0312139987945557,1.2347115278244019,-0.32872375845909119,-0.16296879947185516,-0.617161214351654,-0.95968097448349,0.7106291651725769,-0.052139662206172943,-0.60705024003982544,0.33673018217086792,-0.12371727824211121,-0.84578925371170044,-0.031829316169023514,-1.5201483964920044,-2.8179068565368652,2.499821662902832,7.0351009368896484,-2.6188006401062012,1.0225721597671509,-1.6572815179824829,-0.86914211511611938,-0.34674757719039917,-0.78062397241592407,2.9160456657409668,-0.76056689023971558,1.1301847696304321,0.52655494213104248]},{"Threshold":0.65382224321365356,"ActivationFunction":{"Alpha":2.0},"InputsCount":33,"Output":0.76720965846903422,"Weights":[-0.09493553638458252,-0.40151110291481018,-0.11329405009746552,-1.3975999355316162,-1.6727644205093384,-0.15310901403427124,-1.68674635887146,0.067963011562824249,-0.063315287232398987,-0.22618788480758667,-0.035786788910627365,-0.38530248403549194,-0.045071907341480255,-0.06390746682882309,0.63643503189086914,0.61235916614532471,-0.04688035324215889,1.2594256401062012,0.81362617015838623,-0.75171732902526855,-1.215404748916626,-0.83690804243087769,0.76284188032150269,0.47222849726676941,-1.3620257377624512,3.9712812900543213,-1.4546074867248535,1.8262580633163452,-0.39019951224327087,-0.96411383152008057,0.37769436836242676,-1.9981101751327515,-0.094187714159488678]},{"Threshold":1.6649144887924194,"ActivationFunction":{"Alpha":2.0},"InputsCount":33,"Output":0.89712424223733067,"Weights":[1.0380582809448242,-1.3005534410476685,2.5801370143890381,-1.9987317323684692,0.08159414678812027,2.4968266487121582,-1.6357980966567993,2.0579445362091064,0.91980725526809692,-2.6400749683380127,-0.16121494770050049,1.8584145307540894,0.83330023288726807,0.5022926926612854,-1.5315083265304565,-1.6421889066696167,0.62950736284255981,0.035149894654750824,0.49234172701835632,-0.747205913066864,1.4805957078933716,3.78737211227417,-2.5158371925354004,-3.2757141590118408,0.67828094959259033,2.060307502746582,-0.70914369821548462,-0.20673860609531403,2.4429962635040283,4.3334369659423828,2.4290213584899902,-4.89697790145874,0.87308657169342041]},{"Threshold":-2.5809328556060791,"ActivationFunction":{"Alpha":2.0},"InputsCount":33,"Output":-0.80340913836586247,"Weights":[-1.6428029537200928,-0.7890770435333252,-1.7709600925445557,-0.18535701930522919,0.19929534196853638,0.82005816698074341,-0.64155632257461548,-0.10552085936069489,-0.77384388446807861,-0.29198524355888367,1.2622623443603516,2.5365710258483887,-0.84316134452819824,0.99093115329742432,-1.7786382436752319,3.4154250621795654,-1.5639407634735107,0.45938867330551147,-2.0818240642547607,0.00040160704520531,0.78942078351974487,-1.1753613948822021,-1.9000974893569946,0.29762017726898193,2.714102029800415,0.65754866600036621,-3.0908975601196289,-2.46401309967041,1.1568620204925537,4.840400218963623,-1.2888233661651611,-1.3224835395812988,-0.18350920081138611]},{"Threshold":0.58381092548370361,"ActivationFunction":{"Alpha":2.0},"InputsCount":33,"Output":0.045657704488369033,"Weights":[0.66113203763961792,-0.68637639284133911,2.0522456169128418,1.5440316200256348,-2.0377380847930908,-0.40077102184295654,0.53146487474441528,-0.17390146851539612,-0.0078933509066700935,0.20204758644104004,0.095469675958156586,-0.12575331330299377,0.17299339175224304,0.43774846196174622,0.29597505927085876,-1.1894655227661133,1.9443693161010742,-0.92873466014862061,1.7165127992630005,1.6680498123168945,0.27683296799659729,2.2230045795440674,-1.0314584970474243,-0.74135279655456543,-1.1351898908615112,3.0792398452758789,-0.95500212907791138,-2.2712738513946533,2.4272212982177734,-0.76125788688659668,-1.2224127054214478,1.7396312952041626,-0.058705594390630722]},{"Threshold":-0.619326651096344,"ActivationFunction":{"Alpha":2.0},"InputsCount":33,"Output":-0.57135013356057751,"Weights":[0.47315838932991028,1.0980768203735352,-0.59315365552902222,0.38722425699234009,1.9237685203552246,0.41942194104194641,1.5679043531417847,-0.039489548653364182,0.12025351077318192,0.11785750836133957,0.0038112166803330183,0.23673075437545776,-0.1223745122551918,-0.11734308302402496,-0.5532950758934021,-0.65199077129364014,-0.0018565352074801922,-1.5586105585098267,-1.1111617088317871,0.87942677736282349,0.9268220067024231,0.93797105550765991,-0.21111276745796204,-0.062510959804058075,1.3276153802871704,-4.60709285736084,1.99575936794281,-1.2353549003601074,-0.19593885540962219,1.2442612648010254,-0.38657858967781067,1.2357083559036255,0.52865731716156006]},{"Threshold":-2.893303394317627,"ActivationFunction":{"Alpha":2.0},"InputsCount":33,"Output":0.20609105093321767,"Weights":[-1.3648147583007813,-0.51855427026748657,-1.3889083862304687,-1.6116106510162354,-0.20932179689407349,0.064423538744449615,0.0005539886187762022,-0.16842517256736755,-0.097149468958377838,-0.19789315760135651,0.061719246208667755,-0.18295887112617493,-0.17721568048000336,0.090875595808029175,-0.059113543480634689,3.3313562870025635,-2.3726322650909424,0.564382016658783,-7.5756850242614746,1.7610085010528564,-0.88765740394592285,-8.9338445663452148,1.9562778472900391,-0.24108308553695679,0.090506739914417267,1.9249007701873779,-1.7251554727554321,-0.85977321863174438,1.7769374847412109,-0.78159981966018677,-0.45265960693359375,1.4434865713119507,-0.91443908214569092]},{"Threshold":1.0261486768722534,"ActivationFunction":{"Alpha":2.0},"InputsCount":33,"Output":-0.41186383731329024,"Weights":[1.519275426864624,-1.4692274332046509,3.5635311603546143,1.7544368505477905,-0.010167110711336136,-0.12270442396402359,-0.020528383553028107,-0.4597146213054657,0.13395833969116211,-0.1213587298989296,0.057072620838880539,-0.34601482748985291,0.020416164770722389,-0.11638212949037552,0.46784266829490662,-0.38100597262382507,1.0580636262893677,-2.1477916240692139,4.0377497673034668,0.50143730640411377,1.3862603902816772,4.4950051307678223,-3.3974015712738037,2.5544838905334473,-2.6865386962890625,0.4770791232585907,1.16200852394104,-1.3147276639938354,2.4351871013641357,-1.0451158285140991,-0.43341946601867676,-0.59387427568435669,-0.86848694086074829]},{"Threshold":0.17773202061653137,"ActivationFunction":{"Alpha":2.0},"InputsCount":33,"Output":0.95841528653080665,"Weights":[-0.58201366662979126,-1.7269138097763062,0.094606071710586548,0.026117734611034393,-2.30839467048645,0.58582025766372681,0.7239803671836853,0.28861042857170105,-0.10612101852893829,0.15960554778575897,-0.27573326230049133,-0.01322447881102562,-0.4602990448474884,-0.22890260815620422,0.65809088945388794,-1.0748546123504639,0.61137741804122925,-0.20356683433055878,0.8195645809173584,1.1402585506439209,0.18386004865169525,0.870406448841095,-3.073462963104248,2.4434394836425781,2.6666607856750488,-2.9980499744415283,0.93367141485214233,1.1698001623153687,0.18556351959705353,1.6456735134124756,-2.20770001411438,0.69459366798400879,1.3813526630401611]},{"Threshold":-3.2050721645355225,"ActivationFunction":{"Alpha":2.0},"InputsCount":33,"Output":-0.54523429122478806,"Weights":[-1.472806453704834,-2.1335880756378174,-0.48709520697593689,-2.44206166267395,-0.83968597650527954,4.9221868515014648,0.20315903425216675,0.066390357911586761,0.41779392957687378,0.74554711580276489,0.2450883686542511,0.15825681388378143,0.027221228927373886,-0.24227650463581085,1.0807572603225708,-1.7132656574249268,-0.53058308362960815,-1.5721482038497925,-0.94181674718856812,2.1649394035339355,-0.64681518077850342,0.63206171989440918,-0.62019926309585571,-1.1937843561172485,-4.9858102798461914,2.4446802139282227,0.82489055395126343,0.89036142826080322,3.3404262065887451,-1.1611219644546509,1.4325934648513794,-0.23168602585792542,0.85671067237854]},{"Threshold":0.16571491956710815,"ActivationFunction":{"Alpha":2.0},"InputsCount":33,"Output":-0.73867570204546129,"Weights":[0.66258537769317627,2.583777904510498,-1.2458550930023193,2.620173454284668,-0.54325312376022339,-0.13540834188461304,-0.21643215417861938,-0.17951695621013641,-0.17098714411258698,0.31152433156967163,-0.253097265958786,-0.14801310002803802,0.99424326419830322,0.5420229434967041,0.63004875183105469,-0.05501459538936615,0.23552636802196503,-2.8067986965179443,0.50189292430877686,1.1660457849502563,-0.10640356689691544,2.487147331237793,1.202518105506897,0.025973426178097725,0.35614606738090515,-0.941673755645752,1.0855878591537476,-1.846169114112854,0.24683257937431335,-2.7540614604949951,-0.3623373806476593,0.88409882783889771,-0.82943135499954224]},{"Threshold":-0.70247769355773926,"ActivationFunction":{"Alpha":2.0},"InputsCount":33,"Output":-0.70431182274093973,"Weights":[-1.6460824012756348,1.0999294519424438,-3.8066115379333496,-1.2210373878479004,-0.19307343661785126,-0.410825252532959,-0.12630191445350647,-0.18974970281124115,-0.0093221403658390045,0.51165127754211426,-0.0056687030009925365,-0.28552377223968506,-0.032543625682592392,-0.22164858877658844,-0.26014333963394165,1.4955463409423828,-1.425678014755249,-0.46159067749977112,-1.3052377700805664,0.81976377964019775,-0.71519595384597778,-2.1136245727539062,0.093416027724742889,1.1848028898239136,0.11346471309661865,-0.11619160324335098,-1.8790420293807983,1.012906551361084,0.555520236492157,-0.61706674098968506,-0.40407168865203857,-0.0002909372269641608,0.021329350769519806]},{"Threshold":-1.1882908344268799,"ActivationFunction":{"Alpha":2.0},"InputsCount":33,"Output":-0.48073452702433395,"Weights":[-2.3248527050018311,-1.7238496541976929,-2.3226394653320313,-2.3567109107971191,-0.56524384021759033,0.48207169771194458,-0.05771363154053688,-0.23763097822666168,0.35345107316970825,-0.17152638733386993,-0.030044639483094215,-0.073093250393867493,0.534244179725647,-0.31964167952537537,-0.1629994660615921,5.628115177154541,-1.244418740272522,1.6412054300308228,-1.3442368507385254,1.2464181184768677,-0.31993246078491211,2.5626339912414551,-4.0358214378356934,-0.037360355257987976,-5.3063063621521,0.98080122470855713,0.56358277797698975,0.713996171951294,-1.4279592037200928,-0.38075807690620422,1.6690092086791992,-0.47977006435394287,1.105204701423645]},{"Threshold":3.5020272731781006,"ActivationFunction":{"Alpha":2.0},"InputsCount":33,"Output":-0.95808827412484066,"Weights":[-0.82015120983123779,-1.0657166242599487,-0.3938008248806,-1.9707213640213013,1.0648761987686157,-0.42240062355995178,-1.1634724140167236,-1.2694944143295288,0.043192166835069656,-0.528631865978241,-0.2827087938785553,-0.082045577466487885,-0.29611757397651672,-0.23332957923412323,-0.81942975521087646,-0.10582803189754486,-0.10856504738330841,-0.556277334690094,-0.3899475634098053,-0.35633009672164917,2.3029410839080811,-0.48549953103065491,-2.3614978790283203,-2.2550551891326904,0.54293334484100342,4.15421199798584,-0.25185132026672363,-1.2496668100357056,-0.85690289735794067,-1.5532078742980957,1.3034806251525879,-1.0014420747756958,-0.081084832549095154]},{"Threshold":1.3398935794830322,"ActivationFunction":{"Alpha":2.0},"InputsCount":33,"Output":0.94384613908338211,"Weights":[1.5629472732543945,-0.10766156017780304,2.9803454875946045,0.58428829908370972,0.14982315897941589,0.39044651389122009,0.11465694755315781,0.18706965446472168,-0.243150532245636,-0.67329663038253784,0.29176226258277893,0.45431584119796753,0.014132869429886341,0.28888759016990662,0.12555237114429474,-1.4334477186203003,1.4449626207351685,0.43115758895874023,1.5367686748504639,-1.1194528341293335,0.92412304878234863,1.9835659265518188,0.74303698539733887,-3.1292812824249268,1.1462448835372925,0.8017880916595459,0.54815554618835449,-0.33993467688560486,0.0016255719820037484,-0.4068228006362915,1.4727208614349365,0.3166261613368988,-0.54022341966629028]},{"Threshold":0.23416571319103241,"ActivationFunction":{"Alpha":2.0},"InputsCount":33,"Output":0.999999993506338,"Weights":[-0.051487743854522705,0.83890622854232788,-0.65025132894515991,0.97775554656982422,3.5268127918243408,3.6923248767852783,7.0060553550720215,0.736279308795929,0.746718168258667,0.82381385564804077,2.3685383796691895,4.5867586135864258,-0.30183303356170654,-0.51157695055007935,1.920255184173584,2.1553754806518555,-0.73835659027099609,0.89902967214584351,-0.4075753390789032,-2.6768054962158203,0.302439421415329,-0.52790766954422,-4.5173649787902832,-0.65861666202545166,-1.3672161102294922,-3.0669515132904053,-2.1345839500427246,-1.60182785987854,0.43873730301856995,1.7319793701171875,3.6227028369903564,3.1372365951538086,-0.39276760816574097]},{"Threshold":1.8168970346450806,"ActivationFunction":{"Alpha":2.0},"InputsCount":33,"Output":0.939054391162446,"Weights":[3.3184924125671387,5.311558723449707,1.7229763269424438,0.40357857942581177,-0.10983774065971375,0.19346773624420166,-0.35261932015419006,0.024612016975879669,0.328944593667984,-0.202921062707901,-0.47268617153167725,-0.39561280608177185,0.059176318347454071,-0.40473237633705139,0.27562415599823,-0.61087280511856079,2.266005277633667,-2.5322399139404297,3.3685314655303955,-0.33415058255195618,-0.094774484634399414,3.0506591796875,-0.9878242015838623,0.51058954000473022,-0.21387551724910736,-2.9618067741394043,2.459618091583252,2.2178654670715332,-3.0568838119506836,0.43689525127410889,1.0961160659790039,-1.7478461265563965,0.55097836256027222]},{"Threshold":-0.10450394451618195,"ActivationFunction":{"Alpha":2.0},"InputsCount":33,"Output":-0.29258418007062181,"Weights":[0.62823700904846191,1.2051093578338623,-0.44191062450408936,-1.4299619197845459,-0.30638641119003296,-0.26384639739990234,-0.24919676780700684,-0.24407681822776794,-0.16346290707588196,0.30773994326591492,-0.047785311937332153,-0.0530274398624897,0.87462431192398071,0.61697685718536377,0.35880345106124878,0.12955130636692047,-0.36105898022651672,-1.7686147689819336,0.33741900324821472,0.71145027875900269,0.090259335935115814,0.33252033591270447,1.6873717308044434,0.0025289973709732294,-0.74792170524597168,1.8957604169845581,-0.62826317548751831,-1.7925765514373779,1.5408220291137695,-2.2917995452880859,-1.0619934797286987,1.3445844650268555,-0.77351599931716919]},{"Threshold":4.3735017776489258,"ActivationFunction":{"Alpha":2.0},"InputsCount":33,"Output":-0.342293225348262,"Weights":[0.620140016078949,-0.67550784349441528,1.202898383140564,1.5169352293014526,0.1464623361825943,-0.10868485271930695,0.082006335258483887,0.14799146354198456,0.15518420934677124,0.22620841860771179,-0.033543452620506287,0.14083641767501831,0.13452737033367157,-0.083366863429546356,0.1412692666053772,-4.5339655876159668,2.5977609157562256,-0.37521868944168091,6.3331828117370605,-2.2139027118682861,1.4201995134353638,11.289576530456543,-2.979177713394165,0.45978271961212158,-0.568047821521759,-1.7657228708267212,2.1375300884246826,0.54982912540435791,-1.3540116548538208,0.83814716339111328,0.28987640142440796,-1.4650595188140869,0.938909113407135]},{"Threshold":0.86528992652893066,"ActivationFunction":{"Alpha":2.0},"InputsCount":33,"Output":0.96595949016305638,"Weights":[3.7396321296691895,2.1905083656311035,3.8947186470031738,1.3738996982574463,0.18163631856441498,0.27743813395500183,-0.17956791818141937,-0.03359314426779747,-0.013004696927964687,-0.35703796148300171,-0.33293026685714722,-0.54945832490921021,-0.34831717610359192,0.262212872505188,0.253263384103775,-0.27406966686248779,2.7985475063323975,-0.320200651884079,2.7722883224487305,-0.64787018299102783,-0.14009249210357666,2.3044517040252686,-0.75716108083724976,-0.030227396637201309,0.48388117551803589,-2.1932730674743652,2.6594715118408203,0.98157608509063721,-1.3217122554779053,0.65193271636962891,-0.559584379196167,0.322551429271698,-0.62995404005050659]},{"Threshold":-1.5459624528884888,"ActivationFunction":{"Alpha":2.0},"InputsCount":33,"Output":-0.80701583970369939,"Weights":[-1.805485725402832,-1.7111579179763794,-2.7853779792785645,-1.6454218626022339,0.054364331066608429,-0.0036092214286327362,-0.1225937232375145,-0.11033959686756134,-0.079208560287952423,0.0666944682598114,0.21628783643245697,0.15162946283817291,-0.136336088180542,0.24046984314918518,-0.22946456074714661,1.1280217170715332,-1.7829152345657349,-0.024646284058690071,-2.415057897567749,0.86882209777832031,-0.51176023483276367,-2.4483742713928223,1.4856201410293579,-0.45949041843414307,1.3893640041351318,0.27997705340385437,-1.7611695528030396,0.030203808099031448,1.0311782360076904,-0.38239076733589172,-0.55106508731842041,0.99001163244247437,-0.53528648614883423]},{"Threshold":-1.9763423204421997,"ActivationFunction":{"Alpha":2.0},"InputsCount":33,"Output":-0.26548013388834191,"Weights":[0.62014943361282349,0.3634243905544281,0.63833153247833252,0.065242275595664978,-0.346102774143219,2.2362947463989258,0.76648575067520142,1.3869377374649048,0.36555364727973938,-0.10008480399847031,0.39715573191642761,0.00033775283372960985,-0.40709051489830017,0.21685308218002319,-0.95685499906539917,-2.2666347026824951,0.88985347747802734,-2.2257745265960693,1.0041017532348633,-0.50046515464782715,0.66830241680145264,1.2803455591201782,-0.68276518583297729,2.7956764698028564,-0.60297256708145142,2.2216627597808838,-0.41157609224319458,1.6515032052993774,-0.37773501873016357,-0.15034902095794678,0.68024879693984985,-1.4376735687255859,-0.4298565685749054]},{"Threshold":2.0324993133544922,"ActivationFunction":{"Alpha":2.0},"InputsCount":33,"Output":-0.86591284903757482,"Weights":[2.4564516544342041,3.3161416053771973,1.3774172067642212,0.37596994638442993,0.06822679191827774,-0.84057646989822388,0.59555119276046753,-0.81349945068359375,-1.2880659103393555,-0.091484956443309784,0.491923451423645,0.65825736522674561,0.56092071533203125,0.37880149483680725,-0.8906024694442749,0.9043157696723938,-0.06923753023147583,0.55784362554550171,-2.4449779987335205,-0.55588704347610474,-0.98087626695632935,-2.9832894802093506,-2.3939664363861084,-0.76789212226867676,1.7922211885452271,-1.9691771268844604,-0.78489428758621216,-3.8213424682617187,0.97476106882095337,2.6911849975585937,-0.71517378091812134,-1.4444971084594727,0.54653728008270264]},{"Threshold":1.9651559591293335,"ActivationFunction":{"Alpha":2.0},"InputsCount":33,"Output":0.062514869584378463,"Weights":[1.9621731042861938,2.1174156665802,1.7631587982177734,0.70298522710800171,0.39880949258804321,0.10934083163738251,-0.1183326318860054,0.1255323588848114,0.14722166955471039,0.0057994266971945763,-0.10189589112997055,0.23684243857860565,0.19119256734848022,-0.17029684782028198,0.055435225367546082,-2.5274536609649658,2.2929303646087646,-1.4787777662277222,4.1665496826171875,-1.0246624946594238,0.45194372534751892,5.8173465728759766,-0.34323015809059143,0.50446277856826782,0.55051630735397339,-2.8538808822631836,2.0176827907562256,0.83243662118911743,-2.6091060638427734,0.77560907602310181,0.62441122531890869,-1.6182137727737427,0.81368368864059448]},{"Threshold":0.1119525358080864,"ActivationFunction":{"Alpha":2.0},"InputsCount":33,"Output":0.58289753876424211,"Weights":[0.090949684381484985,-2.0180222988128662,1.8855019807815552,2.563701868057251,-2.474151611328125,-0.29659748077392578,0.29862260818481445,-0.17737951874732971,-0.11996924877166748,0.21235018968582153,-0.091570816934108734,-0.068189635872840881,0.04393874853849411,0.23698581755161285,0.65171563625335693,-0.67719411849975586,1.404954195022583,-0.018741631880402565,1.6378568410873413,1.6622380018234253,0.49246007204055786,2.3749101161956787,-1.448945164680481,-0.022215535864233971,1.424651026725769,0.15900629758834839,-0.566244900226593,-0.87056952714920044,1.2635849714279175,-0.13109882175922394,-1.1481852531433105,1.4019086360931396,0.11320362240076065]}],"Output":[0.068888924643607075,0.99644652939388556,-0.71625525282597247,-0.89537825708594443,0.0316643740537037,0.66202271330308937,0.76720965846903422,0.89712424223733067,-0.80340913836586247,0.045657704488369033,-0.57135013356057751,0.20609105093321767,-0.41186383731329024,0.95841528653080665,-0.54523429122478806,-0.73867570204546129,-0.70431182274093973,-0.48073452702433395,-0.95808827412484066,0.94384613908338211,0.999999993506338,0.939054391162446,-0.29258418007062181,-0.342293225348262,0.96595949016305638,-0.80701583970369939,-0.26548013388834191,-0.86591284903757482,0.062514869584378463,0.58289753876424211]},{"InputsCount":30,"Neurons":[{"Threshold":-0.19408528506755829,"ActivationFunction":{"Alpha":2.0},"InputsCount":30,"Output":0.57024108674357388,"Weights":[0.17741301655769348,-3.98323392868042,0.082803443074226379,1.2856347560882568,-0.6668325662612915,-0.150491401553154,0.50853592157363892,0.14106331765651703,0.082205444574356079,0.42752504348754883,0.49829348921775818,4.8333158493041992,-0.53990250825881958,0.25197425484657288,-0.08483993262052536,-0.3778860867023468,2.2635040283203125,-0.19398249685764313,0.14188423752784729,2.5034096240997314,0.17971794307231903,-2.5309174060821533,0.77177304029464722,3.0103585720062256,4.3567891120910645,-3.3448033332824707,-0.1029435396194458,-0.13272829353809357,1.8734146356582642,-0.4816526472568512]}],"Output":[0.57024108674357388]}],"Output":[0.57024108674357388]}